{"gradients/layers.1.conv.weight":{"bins":[-0.003090021898970008,-0.0029911790043115616,-0.002892336342483759,-0.0027934934478253126,-0.00269465078599751,-0.0025958078913390636,-0.002496965229511261,-0.0023981223348528147,-0.0022992794401943684,-0.0022004367783665657,-0.0021015938837081194,-0.0020027512218803167,-0.0019039083272218704,-0.001805065548978746,-0.0017062227707356215,-0.001607379992492497,-0.0015085372142493725,-0.001409694436006248,-0.0013108516577631235,-0.001212008879519999,-0.0011131661012768745,-0.0010143232066184282,-0.0009154804283753037,-0.0008166376501321793,-0.0007177948718890548,-0.0006189520936459303,-0.0005201093154028058,-0.0004212664789520204,-0.0003224237007088959,-0.0002235809079138562,-0.0001247381151188165,-2.589532232377678e-05,7.294770330190659e-05,0.0001717904960969463,0.000270633288891986,0.00036947609623894095,0.00046831887448206544,0.0005671616527251899,0.0006660044891759753,0.0007648472674190998,0.0008636900456622243,0.0009625328239053488,0.0010613756021484733,0.0011602183803915977,0.001259061275050044,0.0013579040532931685,0.001456746831536293,0.0015555896097794175,0.001654432388022542,0.0017532751662656665,0.001852117944508791,0.0019509607227519155,0.00204980350099504,0.0021486463956534863,0.002247489057481289,0.0023463319521397352,0.0024451748467981815,0.002544017508625984,0.0026428604032844305,0.002741703065112233,0.0028405459597706795,0.002939388621598482,0.0030382315162569284,0.003137074178084731,0.0032359170727431774],"_type":"histogram","values":[3,1,3,13,38,55,60,156,178,234,243,265,337,388,495,594,649,729,1020,1285,1438,1942,2340,2935,4273,6527,10468,15848,26550,54406,193839,662758,93228,35900,19069,12108,7678,5050,3303,2484,2092,1635,1305,1174,815,740,611,464,369,294,256,239,243,209,114,71,47,31,24,13,5,2,3,2]},"_runtime":2664.063605781,"gradients/layers.0.conv.weight":{"bins":[-0.21771211922168732,-0.21056479215621948,-0.20341746509075165,-0.196270152926445,-0.18912282586097717,-0.18197549879550934,-0.1748281717300415,-0.16768084466457367,-0.16053351759910583,-0.1533862054347992,-0.14623887836933136,-0.13909155130386353,-0.1319442242383957,-0.12479690462350845,-0.11764957755804062,-0.11050225794315338,-0.10335493087768555,-0.09620760381221771,-0.08906028419733047,-0.08191295713186264,-0.0747656375169754,-0.06761831045150757,-0.060470983386039734,-0.0533236600458622,-0.04617633670568466,-0.039029013365507126,-0.03188169002532959,-0.024734362959861755,-0.01758703961968422,-0.010439715348184109,-0.003292391076683998,0.0038549331948161125,0.011002257466316223,0.01814958080649376,0.025296906009316444,0.03244423121213913,0.039591554552316666,0.0467388778924942,0.053886204957962036,0.06103352829813957,0.06818085163831711,0.07532817870378494,0.08247549831867218,0.08962282538414001,0.09677015244960785,0.10391747206449509,0.11106479912996292,0.11821211874485016,0.125359445810318,0.13250677287578583,0.13965409994125366,0.1468014121055603,0.15394873917102814,0.16109606623649597,0.1682433933019638,0.17539072036743164,0.18253803253173828,0.18968535959720612,0.19683268666267395,0.20398001372814178,0.21112734079360962,0.21827466785907745,0.2254219800233841,0.23256930708885193,0.23971663415431976],"_type":"histogram","values":[1,1,2,2,2,1,0,2,4,3,1,4,2,4,2,7,3,4,5,6,10,4,18,29,32,66,150,235,581,4413,644745,3060,452,223,88,49,28,25,9,12,14,5,2,3,2,2,3,2,4,1,1,0,1,3,3,2,0,0,0,0,0,0,0,3]},"best_val_loss":5.838999971747398,"val_loss":5.838999971747398,"gradients/to_out.weight":{"_type":"histogram","values":[5,6,7,14,2,4,3,6,2,1,4,3,14,19,14,13,35,19,30,26,37,46,45,48,53,64,89,92,90,80,29,14,12,47,83,84,89,76,60,59,48,29,43,25,36,31,26,22,9,16,12,14,3,0,1,5,2,5,7,11,8,7,5,3],"bins":[-0.03760311380028725,-0.036421552300453186,-0.035239990800619125,-0.034058429300785065,-0.032876867800951004,-0.03169530630111694,-0.030513742938637733,-0.029332181438803673,-0.028150619938969612,-0.02696905843913555,-0.02578749693930149,-0.02460593543946743,-0.02342437207698822,-0.02224281057715416,-0.0210612490773201,-0.019879687577486038,-0.018698126077651978,-0.017516564577817917,-0.016335003077983856,-0.015153440646827221,-0.01397187914699316,-0.0127903176471591,-0.011608755216002464,-0.010427193716168404,-0.009245632216334343,-0.008064070716500282,-0.006882508751004934,-0.005700946785509586,-0.004519385285675526,-0.0033378235530108213,-0.002156261820346117,-0.0009747000876814127,0.00020685791969299316,0.0013884196523576975,0.002569981385022402,0.003751543117687106,0.0049331048503518105,0.006114666350185871,0.007296228315681219,0.008477790281176567,0.009659351781010628,0.010840913280844688,0.012022474780678749,0.013204037211835384,0.014385598711669445,0.015567160211503506,0.01674872264266014,0.0179302841424942,0.019111845642328262,0.020293407142162323,0.021474968641996384,0.022656530141830444,0.023838091641664505,0.025019655004143715,0.026201216503977776,0.027382778003811836,0.028564339503645897,0.029745901003479958,0.030927462503314018,0.03210902586579323,0.03329058736562729,0.03447214886546135,0.03565371036529541,0.03683527186512947,0.03801683336496353]},"gradients/layers.0.conv.bias":{"_type":"histogram","values":[1,0,0,0,1,0,2,0,1,2,0,2,2,2,2,3,5,4,6,6,7,12,18,65,226,87,12,9,4,3,5,4,2,1,2,3,3,2,1,1,1,0,2,0,1,0,0,0,0,0,1,0,0,0,0,0,0,0,0,0,0,0,0,1],"bins":[-0.01663104072213173,-0.01595449633896351,-0.015277953818440437,-0.014601409435272217,-0.013924865983426571,-0.013248322531580925,-0.012571778148412704,-0.011895234696567059,-0.011218691244721413,-0.010542147792875767,-0.00986560434103012,-0.0091890599578619,-0.008512516506016254,-0.007835973054170609,-0.007159429136663675,-0.006482885219156742,-0.005806341767311096,-0.00512979831546545,-0.004453254397958517,-0.0037767107132822275,-0.003100167028605938,-0.0024236233439296484,-0.0017470796592533588,-0.0010705359745770693,-0.0003939922899007797,0.00028255139477550983,0.0009590950794517994,0.001635638764128089,0.0023121824488043785,0.002988726133480668,0.0036652698181569576,0.004341813735663891,0.005018357187509537,0.005694900639355183,0.006371444556862116,0.007047988474369049,0.007724531926214695,0.008401075378060341,0.009077619761228561,0.009754163213074207,0.010430706664919853,0.011107250116765499,0.011783793568611145,0.012460337951779366,0.013136881403625011,0.013813424855470657,0.014489969238638878,0.015166512690484524,0.01584305614233017,0.01651960052549839,0.01719614304602146,0.017872687429189682,0.018549229949712753,0.019225774332880974,0.019902318716049194,0.020578861236572266,0.021255405619740486,0.021931950002908707,0.022608492523431778,0.0232850369066,0.02396158128976822,0.02463812381029129,0.02531466819345951,0.025991210713982582,0.026667755097150803]},"gradients/to_out.bias":{"values":[1,0,0,0,0,0,0,0,0,0,0,1,0,0,0,0,0,0,0,0,1,0,0,0,0,0,0,0,0,0,0,0,0,0,0,0,0,0,0,0,0,0,1,1,0,1,0,0,0,1,0,1,1,1,1,0,0,0,0,1,0,0,1,1],"bins":[-0.04444011300802231,-0.043364424258470535,-0.04228873550891876,-0.04121304303407669,-0.04013735428452492,-0.039061665534973145,-0.03798597678542137,-0.0369102880358696,-0.03583459556102753,-0.034758906811475754,-0.03368321806192398,-0.03260752931237221,-0.031531840562820435,-0.030456149950623512,-0.02938046120107174,-0.028304770588874817,-0.027229081839323044,-0.02615339308977127,-0.02507770247757435,-0.024002013728022575,-0.022926323115825653,-0.02185063436627388,-0.020774945616722107,-0.019699255004525185,-0.01862356625497341,-0.01754787750542164,-0.016472186893224716,-0.015396498143672943,-0.014320808462798595,-0.013245118781924248,-0.012169430032372475,-0.011093740351498127,-0.010018054395914078,-0.00894236471503973,-0.007866675034165382,-0.006790986284613609,-0.005715296603739262,-0.004639606922864914,-0.0035639177076518536,-0.0024882282596081495,-0.0014125388115644455,-0.00033684936352074146,0.0007388400845229626,0.0018145295325666666,0.0028902189806103706,0.003965908661484718,0.005041597876697779,0.006117287091910839,0.007192976772785187,0.008268666453659534,0.009344356134533882,0.010420044884085655,0.011495734564960003,0.01257142424583435,0.013647112995386124,0.014722802676260471,0.01579849235713482,0.016874181106686592,0.017949871718883514,0.019025560468435287,0.02010124921798706,0.021176939830183983,0.022252628579735756,0.023328319191932678,0.02440400794148445],"_type":"histogram"},"gradients/layers.1.conv.bias":{"values":[1,0,0,0,1,0,0,0,1,0,2,1,0,1,3,1,2,2,1,2,7,6,5,8,7,30,108,129,58,37,26,15,13,15,5,2,4,5,1,1,2,2,0,1,1,0,0,1,0,0,0,2,1,0,0,1,0,0,0,0,0,0,0,1],"bins":[-0.003157682716846466,-0.0030402392148971558,-0.002922795945778489,-0.002805352443829179,-0.002687909174710512,-0.002570465672761202,-0.0024530221708118916,-0.002335578901693225,-0.0022181353997439146,-0.0021006918977946043,-0.0019832486286759377,-0.0018658051267266273,-0.0017483617411926389,-0.0016309183556586504,-0.00151347485370934,-0.0013960314681753516,-0.0012785880826413631,-0.0011611446971073747,-0.0010437013115733862,-0.0009262578096240759,-0.0008088144240900874,-0.0006913710385560989,-0.0005739275948144495,-0.0004564841801766306,-0.0003390407655388117,-0.00022159735090099275,-0.00010415393626317382,1.3289478374645114e-05,0.00013073289301246405,0.000248176307650283,0.0003656197222881019,0.00048306313692592084,0.0006005065515637398,0.0007179499370977283,0.0008353933808393776,0.000952836824581027,0.0010702802101150155,0.001187723595649004,0.0013051670975983143,0.0014226104831323028,0.0015400538686662912,0.0016574972542002797,0.0017749406397342682,0.0018923841416835785,0.002009827643632889,0.0021272709127515554,0.0022447144147008657,0.0023621576838195324,0.0024796011857688427,0.002597044687718153,0.0027144879568368196,0.00283193145878613,0.0029493747279047966,0.003066818229854107,0.003184261731803417,0.003301705000922084,0.003419148502871394,0.0035365920048207045,0.003654035273939371,0.0037714787758886814,0.0038889222778379917,0.004006365779787302,0.004123808816075325,0.004241252318024635,0.004358695819973946],"_type":"histogram"},"_wandb":{"runtime":2664},"_step":21,"epoch":11,"train_loss":3.8005240706794234,"_timestamp":1.7461140385002286e+09}