{"gradients/to_out.bias":{"bins":[-0.0035419235937297344,-0.0034120408818125725,-0.003282158402726054,-0.003152275923639536,-0.003022393211722374,-0.002892510499805212,-0.0027626280207186937,-0.0026327455416321754,-0.0025028628297150135,-0.0023729801177978516,-0.0022430976387113333,-0.002113215159624815,-0.001983332447707653,-0.001853449852205813,-0.0017235672567039728,-0.0015936846612021327,-0.0014638020657002926,-0.0013339194701984525,-0.0012040368746966124,-0.0010741542791947722,-0.0009442716836929321,-0.000814389088191092,-0.0006845064926892519,-0.0005546238971874118,-0.00042474130168557167,-0.00029485870618373156,-0.00016497611068189144,-3.509351518005133e-05,9.478908032178879e-05,0.0002246716758236289,0.000354554271325469,0.00048443686682730913,0.0006143194623291492,0.0007442020578309894,0.0008740846533328295,0.0010039672488346696,0.0011338498443365097,0.0012637324398383498,0.00139361503534019,0.00152349763084203,0.0016533802263438702,0.0017832628218457103,0.0019131454173475504,0.0020430278964340687,0.0021729106083512306,0.0023027933202683926,0.002432675799354911,0.002562558278441429,0.002692440990358591,0.002822323702275753,0.0029522061813622713,0.0030820886604487896,0.0032119713723659515,0.0033418540842831135,0.0034717365633696318,0.00360161904245615,0.003731501754373312,0.003861384466290474,0.003991266712546349,0.0041211494244635105,0.0042510321363806725,0.004380914848297834,0.004510797560214996,0.004640679806470871,0.004770562518388033],"_type":"histogram","values":[1,0,0,1,0,0,0,0,1,0,0,0,1,0,1,0,0,0,0,0,0,0,0,0,0,1,0,0,0,0,0,0,0,0,0,0,1,0,0,0,0,0,1,0,0,0,1,2,0,0,0,0,0,0,0,0,1,0,0,0,0,0,1,1]},"_step":25,"best_val_loss":0.014866098185550968,"epoch":19,"train_loss":0.011996402801014484,"gradients/layers.0.conv.weight":{"values":[6,3,0,2,3,3,1,0,0,0,2,3,1,9,3,0,3,6,10,31,24,40,61,39,71,120,198,274,573,1447,3868,17946,605083,17204,3891,1666,686,308,224,161,130,77,32,25,4,25,17,6,5,1,2,7,6,3,2,6,7,2,0,0,2,1,3,3],"bins":[-0.002323100110515952,-0.0022516234312206507,-0.0021801465190947056,-0.002108669839799404,-0.0020371931605041027,-0.0019657164812088013,-0.001894239685498178,-0.0018227628897875547,-0.0017512862104922533,-0.0016798095311969519,-0.0016083327354863286,-0.0015368559397757053,-0.001465379260480404,-0.0013939025811851025,-0.0013224257854744792,-0.001250948989763856,-0.0011794723104685545,-0.001107995631173253,-0.0010365188354626298,-0.0009650420979596674,-0.0008935653604567051,-0.0008220886229537427,-0.0007506118854507804,-0.000679135147947818,-0.0006076584104448557,-0.0005361816729418933,-0.000464704935438931,-0.00039322819793596864,-0.0003217514604330063,-0.00025027472293004394,-0.00017879798542708158,-0.00010732124792411923,-3.584427759051323e-05,3.563245991244912e-05,0.00010710919741541147,0.00017858593491837382,0.0002500626724213362,0.0003215394099242985,0.0003930161474272609,0.0004644928849302232,0.0005359696224331856,0.0006074463599361479,0.0006789230974391103,0.0007503998349420726,0.000821876572445035,0.0008933533099479973,0.0009648300474509597,0.001036306843161583,0.0011077835224568844,0.0011792602017521858,0.001250736997462809,0.0013222137931734324,0.0013936904724687338,0.0014651671517640352,0.0015366439474746585,0.0016081207431852818,0.0016795974224805832,0.0017510741017758846,0.001822550897486508,0.0018940276931971312,0.0019655043724924326,0.002036981051787734,0.002108457963913679,0.0021799346432089806,0.002251411322504282],"_type":"histogram"},"_runtime":258.625554585,"_timestamp":1.7463743506113799e+09,"gradients/layers.1.conv.weight":{"values":[3,3,0,3,0,3,2,1,1,2,0,0,2,1,3,0,13,5,6,18,8,3,10,22,14,31,47,51,56,74,84,130,194,305,516,898,2264,7160,50986,1.088021e+06,19768,4731,2055,815,428,254,199,85,90,84,66,27,2,20,14,15,10,14,14,9,2,0,3,3],"bins":[-0.0010527541162446141,-0.0010259903501719236,-0.0009992265840992332,-0.0009724628762342036,-0.000945699168369174,-0.0009189354022964835,-0.000892171636223793,-0.0008654079283587635,-0.000838644162286073,-0.0008118804544210434,-0.0007851166883483529,-0.0007583529222756624,-0.0007315892144106328,-0.0007048254483379424,-0.0006780617404729128,-0.0006512979744002223,-0.0006245342083275318,-0.0005977705004625022,-0.0005710067343898118,-0.0005442430265247822,-0.0005174792604520917,-0.0004907155525870621,-0.00046395178651437163,-0.0004371880495455116,-0.0004104243125766516,-0.0003836605465039611,-0.00035689680953510106,-0.000330133072566241,-0.000303369335597381,-0.00027660559862852097,-0.0002498418325558305,-0.00022307809558697045,-0.00019631435861811042,-0.0001695506216492504,-0.00014278687012847513,-0.0001160231331596151,-8.925938891479746e-05,-6.249564466997981e-05,-3.5731904063140973e-05,-8.968161637312733e-06,1.7795580788515508e-05,4.455932503333315e-05,7.13230692781508e-05,9.808680624701083e-05,0.00012485054321587086,0.00015161429473664612,0.00017837803170550615,0.0002051417832262814,0.00023190552019514143,0.00025866925716400146,0.0002854329941328615,0.000312196760205552,0.000338960497174412,0.00036572423414327204,0.00039248797111213207,0.0004192517080809921,0.00044601544504985213,0.0004727792111225426,0.0004995429189875722,0.0005263066850602627,0.0005530704511329532,0.0005798341589979827,0.0006065979250706732,0.0006333616329357028,0.0006601253990083933],"_type":"histogram"},"_wandb":{"runtime":262},"gradients/layers.1.conv.bias":{"_type":"histogram","values":[1,1,0,0,0,0,1,0,0,0,1,2,2,1,4,7,9,10,32,201,173,31,12,10,1,1,3,1,0,1,1,0,0,1,1,0,1,0,0,0,0,0,1,0,1,0,0,0,0,0,0,0,0,0,0,0,0,0,0,0,0,0,0,1],"bins":[-0.0006586911040358245,-0.000625532295089215,-0.0005923734279349446,-0.0005592146189883351,-0.0005260558100417256,-0.0004928970010951161,-0.0004597381630446762,-0.00042657932499423623,-0.00039342051604762673,-0.00036026170710101724,-0.0003271028690505773,-0.00029394403100013733,-0.00026078522205352783,-0.0002276263985550031,-0.00019446757505647838,-0.00016130875155795366,-0.00012814992805942893,-9.49911045609042e-05,-6.183228106237948e-05,-2.8673457563854754e-05,4.4853659346699715e-06,3.76441894331947e-05,7.080301293171942e-05,0.00010396183643024415,0.00013712065992876887,0.0001702794834272936,0.00020343830692581832,0.00023659713042434305,0.0002697559539228678,0.00030291476286947727,0.0003360736009199172,0.0003692324389703572,0.00040239118970930576,0.00043554999865591526,0.0004687088367063552,0.0005018676747567952,0.0005350264837034047,0.0005681852926500142,0.0006013441598042846,0.0006345029687508941,0.0006676617776975036,0.0007008205866441131,0.0007339793955907226,0.000767138262744993,0.0008002970716916025,0.000833455880638212,0.0008666147477924824,0.0008997735567390919,0.0009329323656857014,0.0009660911746323109,0.0009992499835789204,0.0010324087925255299,0.0010655676014721394,0.0010987265268340707,0.0011318853357806802,0.0011650441447272897,0.0011982029536738992,0.0012313617626205087,0.0012645205715671182,0.0012976793805137277,0.001330838305875659,0.0013639971148222685,0.001397155923768878,0.0014303147327154875,0.001463473541662097]},"val_loss":0.019942970697048576,"gradients/to_out.weight":{"values":[1,0,1,0,0,1,0,0,1,0,0,1,1,2,2,3,1,5,6,7,2,4,6,18,13,15,16,25,46,74,141,200,257,278,210,145,101,51,33,19,23,15,21,6,7,4,6,2,2,3,2,0,4,0,2,2,0,1,1,2,0,1,0,2],"bins":[-0.0025981024373322725,-0.0025197521317750216,-0.0024414020590484142,-0.0023630517534911633,-0.002284701680764556,-0.002206351375207305,-0.0021280013024806976,-0.0020496509969234467,-0.0019713009241968393,-0.0018929506186395884,-0.0018146004294976592,-0.00173625024035573,-0.001657900051213801,-0.0015795498620718718,-0.0015011996729299426,-0.0014228494837880135,-0.0013444992946460843,-0.0012661491055041552,-0.001187798916362226,-0.0011094487272202969,-0.0010310985380783677,-0.0009527482907287776,-0.0008743981015868485,-0.0007960479124449193,-0.0007176977233029902,-0.000639347534161061,-0.0005609973450191319,-0.0004826471267733723,-0.00040429693763144314,-0.000325946748489514,-0.0002475965302437544,-0.00016924634110182524,-9.089615195989609e-05,-1.2545955542009324e-05,6.580424087587744e-05,0.00014415444456972182,0.00022250463371165097,0.0003008548228535801,0.0003792050410993397,0.0004575552302412689,0.000535905419383198,0.0006142556085251272,0.0006926057976670563,0.0007709559868089855,0.0008493062341585755,0.0009276564233005047,0.0010060066124424338,0.001084356801584363,0.0011627069907262921,0.0012410571798682213,0.0013194073690101504,0.0013977575581520796,0.0014761077472940087,0.0015544579364359379,0.001632808125577867,0.0017111583147197962,0.0017895086202770472,0.0018678588094189763,0.0019462089985609055,0.0020245590712875128,0.0021029093768447638,0.002181259449571371,0.002259609755128622,0.0023379598278552294,0.0024163101334124804],"_type":"histogram"},"gradients/layers.0.conv.bias":{"_type":"histogram","values":[2,0,0,0,0,0,0,0,0,1,1,0,0,2,0,2,1,3,0,3,3,8,5,4,2,1,7,7,5,3,3,322,61,9,7,6,3,6,9,4,5,5,2,4,1,0,1,0,0,0,1,0,1,0,0,0,0,0,0,0,0,1,0,1],"bins":[-0.002566669601947069,-0.002485375851392746,-0.002404081868007779,-0.002322788117453456,-0.002241494134068489,-0.002160200383514166,-0.0020789066329598427,-0.001997612649574876,-0.0019163188990205526,-0.0018350250320509076,-0.0017537311650812626,-0.0016724372981116176,-0.0015911434311419725,-0.0015098495641723275,-0.0014285558136180043,-0.0013472619466483593,-0.0012659680796787143,-0.0011846742127090693,-0.0011033803457394242,-0.001022086595185101,-0.000940792728215456,-0.000859498861245811,-0.000778204994276166,-0.0006969111855141819,-0.0006156173185445368,-0.0005343234515748918,-0.0004530296428129077,-0.00037173577584326267,-0.0002904419379774481,-0.00020914810011163354,-0.00012785424769390374,-4.6560402552131563e-05,3.473344258964062e-05,0.0001160272877314128,0.00019732113287318498,0.0002786149852909148,0.00035990882315672934,0.0004412026610225439,0.0005224965279921889,0.000603790336754173,0.0006850842037238181,0.0007663780706934631,0.0008476718794554472,0.0009289657464250922,0.0010102596133947372,0.0010915534803643823,0.0011728472309187055,0.0012541410978883505,0.0013354349648579955,0.0014167288318276405,0.0014980226987972856,0.0015793164493516088,0.0016606103163212538,0.0017419041832908988,0.0018231980502605438,0.0019044919172301888,0.001985785784199834,0.002067079534754157,0.002148373518139124,0.002229667268693447,0.0023109610192477703,0.002392255002632737,0.0024735487531870604,0.002554842736572027,0.0026361364871263504]}}